digraph Tree {
0 [label="X[5] <= 6.5000\nentropy = 0.811278124459\nsamples = 1000", shape="box"] ;
1 [label="X[10] <= 10.5000\nentropy = 0.645889153816\nsamples = 188", shape="box"] ;
0 -> 1 ;
2 [label="X[6] <= 5.5000\nentropy = 0.483030680146\nsamples = 134", shape="box"] ;
1 -> 2 ;
3 [label="X[0] <= 7.5000\nentropy = 1.0\nsamples = 6", shape="box"] ;
2 -> 3 ;
4 [label="entropy = 0.0000\nsamples = 2\nvalue = [ 0.  2.]", shape="box"] ;
3 -> 4 ;
5 [label="X[8] <= 6.5000\nentropy = 0.811278124459\nsamples = 4", shape="box"] ;
3 -> 5 ;
6 [label="entropy = 0.0000\nsamples = 1\nvalue = [ 0.  1.]", shape="box"] ;
5 -> 6 ;
7 [label="entropy = 0.0000\nsamples = 3\nvalue = [ 3.  0.]", shape="box"] ;
5 -> 7 ;
8 [label="X[7] <= 10.5000\nentropy = 0.422762343779\nsamples = 128", shape="box"] ;
2 -> 8 ;
9 [label="X[3] <= 18.0000\nentropy = 0.520737568627\nsamples = 94", shape="box"] ;
8 -> 9 ;
10 [label="X[4] <= 16.5000\nentropy = 0.492410921316\nsamples = 93", shape="box"] ;
9 -> 10 ;
11 [label="X[2] <= 12.5000\nentropy = 0.462066327636\nsamples = 92", shape="box"] ;
10 -> 11 ;
12 [label="X[2] <= 8.5000\nentropy = 0.360275056422\nsamples = 73", shape="box"] ;
11 -> 12 ;
13 [label="X[10] <= 7.5000\nentropy = 0.534943699097\nsamples = 41", shape="box"] ;
12 -> 13 ;
14 [label="X[10] <= 5.5000\nentropy = 0.863120568567\nsamples = 14", shape="box"] ;
13 -> 14 ;
15 [label="entropy = 0.0000\nsamples = 5\nvalue = [ 5.  0.]", shape="box"] ;
14 -> 15 ;
16 [label="X[9] <= 6.5000\nentropy = 0.991076059838\nsamples = 9", shape="box"] ;
14 -> 16 ;
17 [label="entropy = 0.0000\nsamples = 3\nvalue = [ 3.  0.]", shape="box"] ;
16 -> 17 ;
18 [label="X[7] <= 8.5000\nentropy = 0.918295834054\nsamples = 6", shape="box"] ;
16 -> 18 ;
19 [label="X[4] <= 6.5000\nentropy = 0.918295834054\nsamples = 3", shape="box"] ;
18 -> 19 ;
20 [label="entropy = 0.0000\nsamples = 1\nvalue = [ 0.  1.]", shape="box"] ;
19 -> 20 ;
21 [label="entropy = 0.0000\nsamples = 2\nvalue = [ 2.  0.]", shape="box"] ;
19 -> 21 ;
22 [label="entropy = 0.0000\nsamples = 3\nvalue = [ 0.  3.]", shape="box"] ;
18 -> 22 ;
23 [label="X[6] <= 13.5000\nentropy = 0.228538143954\nsamples = 27", shape="box"] ;
13 -> 23 ;
24 [label="entropy = 0.0000\nsamples = 23\nvalue = [ 23.   0.]", shape="box"] ;
23 -> 24 ;
25 [label="X[8] <= 8.5000\nentropy = 0.811278124459\nsamples = 4", shape="box"] ;
23 -> 25 ;
26 [label="entropy = 0.0000\nsamples = 1\nvalue = [ 0.  1.]", shape="box"] ;
25 -> 26 ;
27 [label="entropy = 0.0000\nsamples = 3\nvalue = [ 3.  0.]", shape="box"] ;
25 -> 27 ;
28 [label="entropy = 0.0000\nsamples = 32\nvalue = [ 32.   0.]", shape="box"] ;
12 -> 28 ;
29 [label="X[8] <= 10.5000\nentropy = 0.742487569542\nsamples = 19", shape="box"] ;
11 -> 29 ;
30 [label="X[1] <= 4.5000\nentropy = 0.371232326641\nsamples = 14", shape="box"] ;
29 -> 30 ;
31 [label="X[10] <= 8.0000\nentropy = 1.0\nsamples = 2", shape="box"] ;
30 -> 31 ;
32 [label="entropy = 0.0000\nsamples = 1\nvalue = [ 1.  0.]", shape="box"] ;
31 -> 32 ;
33 [label="entropy = 0.0000\nsamples = 1\nvalue = [ 0.  1.]", shape="box"] ;
31 -> 33 ;
34 [label="entropy = 0.0000\nsamples = 12\nvalue = [ 12.   0.]", shape="box"] ;
30 -> 34 ;
35 [label="X[9] <= 11.5000\nentropy = 0.970950594455\nsamples = 5", shape="box"] ;
29 -> 35 ;
36 [label="entropy = 0.0000\nsamples = 3\nvalue = [ 0.  3.]", shape="box"] ;
35 -> 36 ;
37 [label="entropy = 0.0000\nsamples = 2\nvalue = [ 2.  0.]", shape="box"] ;
35 -> 37 ;
38 [label="entropy = 0.0000\nsamples = 1\nvalue = [ 0.  1.]", shape="box"] ;
10 -> 38 ;
39 [label="entropy = 0.0000\nsamples = 1\nvalue = [ 0.  1.]", shape="box"] ;
9 -> 39 ;
40 [label="entropy = 0.0000\nsamples = 34\nvalue = [ 34.   0.]", shape="box"] ;
8 -> 40 ;
41 [label="X[0] <= 8.5000\nentropy = 0.898653375691\nsamples = 54", shape="box"] ;
1 -> 41 ;
42 [label="X[0] <= 6.5000\nentropy = 0.558629373452\nsamples = 23", shape="box"] ;
41 -> 42 ;
43 [label="X[9] <= 10.0000\nentropy = 0.845350936622\nsamples = 11", shape="box"] ;
42 -> 43 ;
44 [label="entropy = 0.0000\nsamples = 5\nvalue = [ 5.  0.]", shape="box"] ;
43 -> 44 ;
45 [label="X[1] <= 7.5000\nentropy = 1.0\nsamples = 6", shape="box"] ;
43 -> 45 ;
46 [label="X[9] <= 15.5000\nentropy = 0.811278124459\nsamples = 4", shape="box"] ;
45 -> 46 ;
47 [label="entropy = 0.0000\nsamples = 3\nvalue = [ 3.  0.]", shape="box"] ;
46 -> 47 ;
48 [label="entropy = 0.0000\nsamples = 1\nvalue = [ 0.  1.]", shape="box"] ;
46 -> 48 ;
49 [label="entropy = 0.0000\nsamples = 2\nvalue = [ 0.  2.]", shape="box"] ;
45 -> 49 ;
50 [label="entropy = 0.0000\nsamples = 12\nvalue = [ 12.   0.]", shape="box"] ;
42 -> 50 ;
51 [label="X[2] <= 7.5000\nentropy = 0.99323381974\nsamples = 31", shape="box"] ;
41 -> 51 ;
52 [label="X[0] <= 17.5000\nentropy = 0.503258334776\nsamples = 9", shape="box"] ;
51 -> 52 ;
53 [label="entropy = 0.0000\nsamples = 8\nvalue = [ 8.  0.]", shape="box"] ;
52 -> 53 ;
54 [label="entropy = 0.0000\nsamples = 1\nvalue = [ 0.  1.]", shape="box"] ;
52 -> 54 ;
55 [label="X[1] <= 6.5000\nentropy = 0.976020648237\nsamples = 22", shape="box"] ;
51 -> 55 ;
56 [label="entropy = 0.0000\nsamples = 4\nvalue = [ 4.  0.]", shape="box"] ;
55 -> 56 ;
57 [label="X[10] <= 11.5000\nentropy = 0.852405178649\nsamples = 18", shape="box"] ;
55 -> 57 ;
58 [label="X[0] <= 9.5000\nentropy = 0.985228136034\nsamples = 7", shape="box"] ;
57 -> 58 ;
59 [label="entropy = 0.0000\nsamples = 2\nvalue = [ 0.  2.]", shape="box"] ;
58 -> 59 ;
60 [label="X[9] <= 6.0000\nentropy = 0.721928094887\nsamples = 5", shape="box"] ;
58 -> 60 ;
61 [label="entropy = 0.0000\nsamples = 1\nvalue = [ 0.  1.]", shape="box"] ;
60 -> 61 ;
62 [label="entropy = 0.0000\nsamples = 4\nvalue = [ 4.  0.]", shape="box"] ;
60 -> 62 ;
63 [label="X[2] <= 17.0000\nentropy = 0.439496986922\nsamples = 11", shape="box"] ;
57 -> 63 ;
64 [label="entropy = 0.0000\nsamples = 10\nvalue = [  0.  10.]", shape="box"] ;
63 -> 64 ;
65 [label="entropy = 0.0000\nsamples = 1\nvalue = [ 1.  0.]", shape="box"] ;
63 -> 65 ;
66 [label="X[6] <= 3.5000\nentropy = 0.841040197089\nsamples = 812", shape="box"] ;
0 -> 66 ;
67 [label="entropy = 0.0000\nsamples = 11\nvalue = [ 11.   0.]", shape="box"] ;
66 -> 67 ;
68 [label="X[10] <= 7.5000\nentropy = 0.846312844862\nsamples = 801", shape="box"] ;
66 -> 68 ;
69 [label="X[4] <= 4.5000\nentropy = 0.921037280563\nsamples = 241", shape="box"] ;
68 -> 69 ;
70 [label="X[1] <= 8.5000\nentropy = 0.811278124459\nsamples = 16", shape="box"] ;
69 -> 70 ;
71 [label="X[3] <= 9.0000\nentropy = 1.0\nsamples = 8", shape="box"] ;
70 -> 71 ;
72 [label="entropy = 0.0000\nsamples = 3\nvalue = [ 3.  0.]", shape="box"] ;
71 -> 72 ;
73 [label="X[4] <= 2.0000\nentropy = 0.721928094887\nsamples = 5", shape="box"] ;
71 -> 73 ;
74 [label="entropy = 0.0000\nsamples = 1\nvalue = [ 1.  0.]", shape="box"] ;
73 -> 74 ;
75 [label="entropy = 0.0000\nsamples = 4\nvalue = [ 0.  4.]", shape="box"] ;
73 -> 75 ;
76 [label="entropy = 0.0000\nsamples = 8\nvalue = [ 0.  8.]", shape="box"] ;
70 -> 76 ;
77 [label="X[7] <= 7.5000\nentropy = 0.889288152727\nsamples = 225", shape="box"] ;
69 -> 77 ;
78 [label="X[3] <= 7.5000\nentropy = 0.638514626362\nsamples = 68", shape="box"] ;
77 -> 78 ;
79 [label="X[8] <= 11.0000\nentropy = 0.936667381878\nsamples = 17", shape="box"] ;
78 -> 79 ;
80 [label="X[5] <= 9.5000\nentropy = 0.684038435639\nsamples = 11", shape="box"] ;
79 -> 80 ;
81 [label="X[6] <= 9.0000\nentropy = 1.0\nsamples = 4", shape="box"] ;
80 -> 81 ;
82 [label="entropy = 0.0000\nsamples = 2\nvalue = [ 0.  2.]", shape="box"] ;
81 -> 82 ;
83 [label="entropy = 0.0000\nsamples = 2\nvalue = [ 2.  0.]", shape="box"] ;
81 -> 83 ;
84 [label="entropy = 0.0000\nsamples = 7\nvalue = [ 7.  0.]", shape="box"] ;
80 -> 84 ;
85 [label="X[6] <= 7.0000\nentropy = 0.918295834054\nsamples = 6", shape="box"] ;
79 -> 85 ;
86 [label="entropy = 0.0000\nsamples = 2\nvalue = [ 2.  0.]", shape="box"] ;
85 -> 86 ;
87 [label="entropy = 0.0000\nsamples = 4\nvalue = [ 0.  4.]", shape="box"] ;
85 -> 87 ;
88 [label="X[2] <= 10.5000\nentropy = 0.462749058578\nsamples = 51", shape="box"] ;
78 -> 88 ;
89 [label="X[7] <= 5.5000\nentropy = 0.613619019599\nsamples = 33", shape="box"] ;
88 -> 89 ;
90 [label="entropy = 0.0000\nsamples = 10\nvalue = [ 10.   0.]", shape="box"] ;
89 -> 90 ;
91 [label="X[0] <= 8.5000\nentropy = 0.755375412561\nsamples = 23", shape="box"] ;
89 -> 91 ;
92 [label="X[8] <= 7.5000\nentropy = 0.391243563629\nsamples = 13", shape="box"] ;
91 -> 92 ;
93 [label="entropy = 0.0000\nsamples = 1\nvalue = [ 0.  1.]", shape="box"] ;
92 -> 93 ;
94 [label="entropy = 0.0000\nsamples = 12\nvalue = [ 12.   0.]", shape="box"] ;
92 -> 94 ;
95 [label="X[4] <= 6.5000\nentropy = 0.970950594455\nsamples = 10", shape="box"] ;
91 -> 95 ;
96 [label="entropy = 0.0000\nsamples = 2\nvalue = [ 0.  2.]", shape="box"] ;
95 -> 96 ;
97 [label="X[0] <= 10.5000\nentropy = 0.811278124459\nsamples = 8", shape="box"] ;
95 -> 97 ;
98 [label="X[4] <= 8.0000\nentropy = 0.918295834054\nsamples = 3", shape="box"] ;
97 -> 98 ;
99 [label="entropy = 0.0000\nsamples = 1\nvalue = [ 1.  0.]", shape="box"] ;
98 -> 99 ;
100 [label="entropy = 0.0000\nsamples = 2\nvalue = [ 0.  2.]", shape="box"] ;
98 -> 100 ;
101 [label="entropy = 0.0000\nsamples = 5\nvalue = [ 5.  0.]", shape="box"] ;
97 -> 101 ;
102 [label="entropy = 0.0000\nsamples = 18\nvalue = [ 18.   0.]", shape="box"] ;
88 -> 102 ;
103 [label="X[3] <= 13.5000\nentropy = 0.950230920196\nsamples = 157", shape="box"] ;
77 -> 103 ;
104 [label="X[0] <= 3.5000\nentropy = 0.971768525286\nsamples = 142", shape="box"] ;
103 -> 104 ;
105 [label="entropy = 0.0000\nsamples = 3\nvalue = [ 0.  3.]", shape="box"] ;
104 -> 105 ;
106 [label="X[5] <= 7.5000\nentropy = 0.963817657698\nsamples = 139", shape="box"] ;
104 -> 106 ;
107 [label="X[0] <= 11.5000\nentropy = 0.970950594455\nsamples = 20", shape="box"] ;
106 -> 107 ;
108 [label="X[2] <= 9.0000\nentropy = 0.836640741941\nsamples = 15", shape="box"] ;
107 -> 108 ;
109 [label="X[10] <= 6.0000\nentropy = 1.0\nsamples = 8", shape="box"] ;
108 -> 109 ;
110 [label="entropy = 0.0000\nsamples = 3\nvalue = [ 3.  0.]", shape="box"] ;
109 -> 110 ;
111 [label="X[7] <= 10.0000\nentropy = 0.721928094887\nsamples = 5", shape="box"] ;
109 -> 111 ;
112 [label="X[8] <= 11.5000\nentropy = 1.0\nsamples = 2", shape="box"] ;
111 -> 112 ;
113 [label="entropy = 0.0000\nsamples = 1\nvalue = [ 1.  0.]", shape="box"] ;
112 -> 113 ;
114 [label="entropy = 0.0000\nsamples = 1\nvalue = [ 0.  1.]", shape="box"] ;
112 -> 114 ;
115 [label="entropy = 0.0000\nsamples = 3\nvalue = [ 0.  3.]", shape="box"] ;
111 -> 115 ;
116 [label="entropy = 0.0000\nsamples = 7\nvalue = [ 0.  7.]", shape="box"] ;
108 -> 116 ;
117 [label="X[4] <= 6.5000\nentropy = 0.721928094887\nsamples = 5", shape="box"] ;
107 -> 117 ;
118 [label="entropy = 0.0000\nsamples = 1\nvalue = [ 0.  1.]", shape="box"] ;
117 -> 118 ;
119 [label="entropy = 0.0000\nsamples = 4\nvalue = [ 4.  0.]", shape="box"] ;
117 -> 119 ;
120 [label="X[1] <= 14.5000\nentropy = 0.936667381878\nsamples = 119", shape="box"] ;
106 -> 120 ;
121 [label="X[2] <= 13.5000\nentropy = 0.95688866568\nsamples = 111", shape="box"] ;
120 -> 121 ;
122 [label="X[5] <= 14.5000\nentropy = 0.973156035442\nsamples = 104", shape="box"] ;
121 -> 122 ;
123 [label="X[7] <= 15.5000\nentropy = 0.960707901876\nsamples = 99", shape="box"] ;
122 -> 123 ;
124 [label="X[5] <= 12.5000\nentropy = 0.96846100876\nsamples = 96", shape="box"] ;
123 -> 124 ;
125 [label="X[10] <= 2.5000\nentropy = 0.981664948537\nsamples = 88", shape="box"] ;
124 -> 125 ;
126 [label="entropy = 0.0000\nsamples = 2\nvalue = [ 0.  2.]", shape="box"] ;
125 -> 126 ;
127 [label="X[10] <= 3.5000\nentropy = 0.9748857078\nsamples = 86", shape="box"] ;
125 -> 127 ;
128 [label="entropy = 0.0000\nsamples = 4\nvalue = [ 4.  0.]", shape="box"] ;
127 -> 128 ;
129 [label="X[4] <= 8.5000\nentropy = 0.98449613118\nsamples = 82", shape="box"] ;
127 -> 129 ;
130 [label="X[1] <= 11.5000\nentropy = 0.89805879345\nsamples = 35", shape="box"] ;
129 -> 130 ;
131 [label="X[3] <= 9.5000\nentropy = 0.811278124459\nsamples = 32", shape="box"] ;
130 -> 131 ;
132 [label="X[9] <= 10.5000\nentropy = 0.945660304601\nsamples = 22", shape="box"] ;
131 -> 132 ;
133 [label="X[3] <= 8.5000\nentropy = 0.881290899231\nsamples = 20", shape="box"] ;
132 -> 133 ;
134 [label="X[6] <= 10.5000\nentropy = 0.764204506509\nsamples = 18", shape="box"] ;
133 -> 134 ;
135 [label="X[7] <= 8.5000\nentropy = 0.413816850304\nsamples = 12", shape="box"] ;
134 -> 135 ;
136 [label="entropy = 0.0000\nsamples = 1\nvalue = [ 0.  1.]", shape="box"] ;
135 -> 136 ;
137 [label="entropy = 0.0000\nsamples = 11\nvalue = [ 11.   0.]", shape="box"] ;
135 -> 137 ;
138 [label="X[0] <= 11.5000\nentropy = 1.0\nsamples = 6", shape="box"] ;
134 -> 138 ;
139 [label="X[0] <= 9.0000\nentropy = 0.811278124459\nsamples = 4", shape="box"] ;
138 -> 139 ;
140 [label="X[1] <= 8.0000\nentropy = 1.0\nsamples = 2", shape="box"] ;
139 -> 140 ;
141 [label="entropy = 0.0000\nsamples = 1\nvalue = [ 0.  1.]", shape="box"] ;
140 -> 141 ;
142 [label="entropy = 0.0000\nsamples = 1\nvalue = [ 1.  0.]", shape="box"] ;
140 -> 142 ;
143 [label="entropy = 0.0000\nsamples = 2\nvalue = [ 0.  2.]", shape="box"] ;
139 -> 143 ;
144 [label="entropy = 0.0000\nsamples = 2\nvalue = [ 2.  0.]", shape="box"] ;
138 -> 144 ;
145 [label="entropy = 0.0000\nsamples = 2\nvalue = [ 0.  2.]", shape="box"] ;
133 -> 145 ;
146 [label="entropy = 0.0000\nsamples = 2\nvalue = [ 0.  2.]", shape="box"] ;
132 -> 146 ;
147 [label="entropy = 0.0000\nsamples = 10\nvalue = [ 10.   0.]", shape="box"] ;
131 -> 147 ;
148 [label="entropy = 0.0000\nsamples = 3\nvalue = [ 0.  3.]", shape="box"] ;
130 -> 148 ;
149 [label="X[9] <= 11.5000\nentropy = 0.999673426005\nsamples = 47", shape="box"] ;
129 -> 149 ;
150 [label="X[3] <= 11.5000\nentropy = 0.977417817528\nsamples = 34", shape="box"] ;
149 -> 150 ;
151 [label="X[3] <= 10.5000\nentropy = 0.999142103992\nsamples = 29", shape="box"] ;
150 -> 151 ;
152 [label="X[0] <= 6.5000\nentropy = 0.982858689713\nsamples = 26", shape="box"] ;
151 -> 152 ;
153 [label="entropy = 0.0000\nsamples = 2\nvalue = [ 2.  0.]", shape="box"] ;
152 -> 153 ;
154 [label="X[6] <= 9.5000\nentropy = 0.954434002925\nsamples = 24", shape="box"] ;
152 -> 154 ;
155 [label="X[3] <= 6.5000\nentropy = 1.0\nsamples = 16", shape="box"] ;
154 -> 155 ;
156 [label="entropy = 0.0000\nsamples = 4\nvalue = [ 0.  4.]", shape="box"] ;
155 -> 156 ;
157 [label="X[2] <= 9.5000\nentropy = 0.918295834054\nsamples = 12", shape="box"] ;
155 -> 157 ;
158 [label="X[2] <= 8.5000\nentropy = 1.0\nsamples = 8", shape="box"] ;
157 -> 158 ;
159 [label="X[6] <= 5.5000\nentropy = 0.918295834054\nsamples = 6", shape="box"] ;
158 -> 159 ;
160 [label="X[2] <= 5.5000\nentropy = 0.918295834054\nsamples = 3", shape="box"] ;
159 -> 160 ;
161 [label="entropy = 0.0000\nsamples = 1\nvalue = [ 1.  0.]", shape="box"] ;
160 -> 161 ;
162 [label="entropy = 0.0000\nsamples = 2\nvalue = [ 0.  2.]", shape="box"] ;
160 -> 162 ;
163 [label="entropy = 0.0000\nsamples = 3\nvalue = [ 3.  0.]", shape="box"] ;
159 -> 163 ;
164 [label="entropy = 0.0000\nsamples = 2\nvalue = [ 0.  2.]", shape="box"] ;
158 -> 164 ;
165 [label="entropy = 0.0000\nsamples = 4\nvalue = [ 4.  0.]", shape="box"] ;
157 -> 165 ;
166 [label="X[3] <= 6.5000\nentropy = 0.5435644432\nsamples = 8", shape="box"] ;
154 -> 166 ;
167 [label="entropy = 0.0000\nsamples = 1\nvalue = [ 1.  0.]", shape="box"] ;
166 -> 167 ;
168 [label="entropy = 0.0000\nsamples = 7\nvalue = [ 0.  7.]", shape="box"] ;
166 -> 168 ;
169 [label="entropy = 0.0000\nsamples = 3\nvalue = [ 3.  0.]", shape="box"] ;
151 -> 169 ;
170 [label="entropy = 0.0000\nsamples = 5\nvalue = [ 0.  5.]", shape="box"] ;
150 -> 170 ;
171 [label="X[4] <= 13.5000\nentropy = 0.890491640219\nsamples = 13", shape="box"] ;
149 -> 171 ;
172 [label="X[7] <= 12.0000\nentropy = 0.503258334776\nsamples = 9", shape="box"] ;
171 -> 172 ;
173 [label="entropy = 0.0000\nsamples = 7\nvalue = [ 7.  0.]", shape="box"] ;
172 -> 173 ;
174 [label="X[10] <= 6.5000\nentropy = 1.0\nsamples = 2", shape="box"] ;
172 -> 174 ;
175 [label="entropy = 0.0000\nsamples = 1\nvalue = [ 1.  0.]", shape="box"] ;
174 -> 175 ;
176 [label="entropy = 0.0000\nsamples = 1\nvalue = [ 0.  1.]", shape="box"] ;
174 -> 176 ;
177 [label="X[3] <= 7.5000\nentropy = 0.811278124459\nsamples = 4", shape="box"] ;
171 -> 177 ;
178 [label="entropy = 0.0000\nsamples = 1\nvalue = [ 1.  0.]", shape="box"] ;
177 -> 178 ;
179 [label="entropy = 0.0000\nsamples = 3\nvalue = [ 0.  3.]", shape="box"] ;
177 -> 179 ;
180 [label="X[0] <= 5.5000\nentropy = 0.5435644432\nsamples = 8", shape="box"] ;
124 -> 180 ;
181 [label="entropy = 0.0000\nsamples = 1\nvalue = [ 0.  1.]", shape="box"] ;
180 -> 181 ;
182 [label="entropy = 0.0000\nsamples = 7\nvalue = [ 7.  0.]", shape="box"] ;
180 -> 182 ;
183 [label="entropy = 0.0000\nsamples = 3\nvalue = [ 3.  0.]", shape="box"] ;
123 -> 183 ;
184 [label="X[7] <= 13.5000\nentropy = 0.721928094887\nsamples = 5", shape="box"] ;
122 -> 184 ;
185 [label="X[6] <= 6.5000\nentropy = 1.0\nsamples = 2", shape="box"] ;
184 -> 185 ;
186 [label="entropy = 0.0000\nsamples = 1\nvalue = [ 0.  1.]", shape="box"] ;
185 -> 186 ;
187 [label="entropy = 0.0000\nsamples = 1\nvalue = [ 1.  0.]", shape="box"] ;
185 -> 187 ;
188 [label="entropy = 0.0000\nsamples = 3\nvalue = [ 0.  3.]", shape="box"] ;
184 -> 188 ;
189 [label="entropy = 0.0000\nsamples = 7\nvalue = [ 7.  0.]", shape="box"] ;
121 -> 189 ;
190 [label="entropy = 0.0000\nsamples = 8\nvalue = [ 8.  0.]", shape="box"] ;
120 -> 190 ;
191 [label="X[8] <= 14.5000\nentropy = 0.353359335021\nsamples = 15", shape="box"] ;
103 -> 191 ;
192 [label="entropy = 0.0000\nsamples = 14\nvalue = [ 14.   0.]", shape="box"] ;
191 -> 192 ;
193 [label="entropy = 0.0000\nsamples = 1\nvalue = [ 0.  1.]", shape="box"] ;
191 -> 193 ;
194 [label="X[6] <= 14.5000\nentropy = 0.805568315749\nsamples = 560", shape="box"] ;
68 -> 194 ;
195 [label="X[4] <= 8.5000\nentropy = 0.819294346374\nsamples = 537", shape="box"] ;
194 -> 195 ;
196 [label="X[6] <= 9.5000\nentropy = 0.729856316947\nsamples = 250", shape="box"] ;
195 -> 196 ;
197 [label="X[3] <= 20.0000\nentropy = 0.582246305012\nsamples = 158", shape="box"] ;
196 -> 197 ;
198 [label="X[5] <= 12.5000\nentropy = 0.567655065526\nsamples = 157", shape="box"] ;
197 -> 198 ;
199 [label="X[8] <= 13.5000\nentropy = 0.609840304716\nsamples = 140", shape="box"] ;
198 -> 199 ;
200 [label="X[2] <= 2.0000\nentropy = 0.632130278122\nsamples = 132", shape="box"] ;
199 -> 200 ;
201 [label="entropy = 0.0000\nsamples = 1\nvalue = [ 0.  1.]", shape="box"] ;
200 -> 201 ;
202 [label="X[8] <= 4.5000\nentropy = 0.616486184266\nsamples = 131", shape="box"] ;
200 -> 202 ;
203 [label="entropy = 0.0000\nsamples = 6\nvalue = [ 6.  0.]", shape="box"] ;
202 -> 203 ;
204 [label="X[0] <= 9.5000\nentropy = 0.634309554641\nsamples = 125", shape="box"] ;
202 -> 204 ;
205 [label="X[0] <= 8.5000\nentropy = 0.529360865287\nsamples = 75", shape="box"] ;
204 -> 205 ;
206 [label="X[9] <= 5.5000\nentropy = 0.636015617739\nsamples = 56", shape="box"] ;
205 -> 206 ;
207 [label="entropy = 0.0000\nsamples = 10\nvalue = [ 10.   0.]", shape="box"] ;
206 -> 207 ;
208 [label="X[0] <= 7.5000\nentropy = 0.713146748638\nsamples = 46", shape="box"] ;
206 -> 208 ;
209 [label="X[5] <= 8.5000\nentropy = 0.554778163341\nsamples = 31", shape="box"] ;
208 -> 209 ;
210 [label="entropy = 0.0000\nsamples = 14\nvalue = [ 14.   0.]", shape="box"] ;
209 -> 210 ;
211 [label="X[5] <= 9.5000\nentropy = 0.787126586201\nsamples = 17", shape="box"] ;
209 -> 211 ;
212 [label="X[7] <= 10.5000\nentropy = 1.0\nsamples = 8", shape="box"] ;
211 -> 212 ;
213 [label="X[10] <= 14.5000\nentropy = 0.721928094887\nsamples = 5", shape="box"] ;
212 -> 213 ;
214 [label="entropy = 0.0000\nsamples = 4\nvalue = [ 0.  4.]", shape="box"] ;
213 -> 214 ;
215 [label="entropy = 0.0000\nsamples = 1\nvalue = [ 1.  0.]", shape="box"] ;
213 -> 215 ;
216 [label="entropy = 0.0000\nsamples = 3\nvalue = [ 3.  0.]", shape="box"] ;
212 -> 216 ;
217 [label="entropy = 0.0000\nsamples = 9\nvalue = [ 9.  0.]", shape="box"] ;
211 -> 217 ;
218 [label="X[3] <= 6.5000\nentropy = 0.918295834054\nsamples = 15", shape="box"] ;
208 -> 218 ;
219 [label="entropy = 0.0000\nsamples = 2\nvalue = [ 0.  2.]", shape="box"] ;
218 -> 219 ;
220 [label="X[10] <= 12.5000\nentropy = 0.779349837292\nsamples = 13", shape="box"] ;
218 -> 220 ;
221 [label="entropy = 0.0000\nsamples = 9\nvalue = [ 9.  0.]", shape="box"] ;
220 -> 221 ;
222 [label="X[8] <= 12.5000\nentropy = 0.811278124459\nsamples = 4", shape="box"] ;
220 -> 222 ;
223 [label="entropy = 0.0000\nsamples = 3\nvalue = [ 0.  3.]", shape="box"] ;
222 -> 223 ;
224 [label="entropy = 0.0000\nsamples = 1\nvalue = [ 1.  0.]", shape="box"] ;
222 -> 224 ;
225 [label="entropy = 0.0000\nsamples = 19\nvalue = [ 19.   0.]", shape="box"] ;
205 -> 225 ;
226 [label="X[9] <= 13.5000\nentropy = 0.760167502962\nsamples = 50", shape="box"] ;
204 -> 226 ;
227 [label="X[2] <= 9.5000\nentropy = 0.839004061368\nsamples = 41", shape="box"] ;
226 -> 227 ;
228 [label="X[8] <= 6.5000\nentropy = 0.634309554641\nsamples = 25", shape="box"] ;
227 -> 228 ;
229 [label="X[7] <= 9.5000\nentropy = 0.918295834054\nsamples = 3", shape="box"] ;
228 -> 229 ;
230 [label="entropy = 0.0000\nsamples = 1\nvalue = [ 1.  0.]", shape="box"] ;
229 -> 230 ;
231 [label="entropy = 0.0000\nsamples = 2\nvalue = [ 0.  2.]", shape="box"] ;
229 -> 231 ;
232 [label="X[5] <= 8.5000\nentropy = 0.439496986922\nsamples = 22", shape="box"] ;
228 -> 232 ;
233 [label="X[4] <= 7.5000\nentropy = 0.764204506509\nsamples = 9", shape="box"] ;
232 -> 233 ;
234 [label="entropy = 0.0000\nsamples = 4\nvalue = [ 4.  0.]", shape="box"] ;
233 -> 234 ;
235 [label="X[2] <= 7.5000\nentropy = 0.970950594455\nsamples = 5", shape="box"] ;
233 -> 235 ;
236 [label="entropy = 0.0000\nsamples = 2\nvalue = [ 2.  0.]", shape="box"] ;
235 -> 236 ;
237 [label="X[7] <= 11.5000\nentropy = 0.918295834054\nsamples = 3", shape="box"] ;
235 -> 237 ;
238 [label="entropy = 0.0000\nsamples = 2\nvalue = [ 0.  2.]", shape="box"] ;
237 -> 238 ;
239 [label="entropy = 0.0000\nsamples = 1\nvalue = [ 1.  0.]", shape="box"] ;
237 -> 239 ;
240 [label="entropy = 0.0000\nsamples = 13\nvalue = [ 13.   0.]", shape="box"] ;
232 -> 240 ;
241 [label="X[8] <= 6.5000\nentropy = 0.988699408288\nsamples = 16", shape="box"] ;
227 -> 241 ;
242 [label="entropy = 0.0000\nsamples = 5\nvalue = [ 5.  0.]", shape="box"] ;
241 -> 242 ;
243 [label="X[10] <= 8.5000\nentropy = 0.945660304601\nsamples = 11", shape="box"] ;
241 -> 243 ;
244 [label="entropy = 0.0000\nsamples = 3\nvalue = [ 0.  3.]", shape="box"] ;
243 -> 244 ;
245 [label="X[0] <= 11.5000\nentropy = 1.0\nsamples = 8", shape="box"] ;
243 -> 245 ;
246 [label="X[7] <= 10.5000\nentropy = 0.918295834054\nsamples = 6", shape="box"] ;
245 -> 246 ;
247 [label="X[7] <= 8.0000\nentropy = 0.918295834054\nsamples = 3", shape="box"] ;
246 -> 247 ;
248 [label="entropy = 0.0000\nsamples = 1\nvalue = [ 0.  1.]", shape="box"] ;
247 -> 248 ;
249 [label="entropy = 0.0000\nsamples = 2\nvalue = [ 2.  0.]", shape="box"] ;
247 -> 249 ;
250 [label="entropy = 0.0000\nsamples = 3\nvalue = [ 0.  3.]", shape="box"] ;
246 -> 250 ;
251 [label="entropy = 0.0000\nsamples = 2\nvalue = [ 2.  0.]", shape="box"] ;
245 -> 251 ;
252 [label="entropy = 0.0000\nsamples = 9\nvalue = [ 9.  0.]", shape="box"] ;
226 -> 252 ;
253 [label="entropy = 0.0000\nsamples = 8\nvalue = [ 8.  0.]", shape="box"] ;
199 -> 253 ;
254 [label="entropy = 0.0000\nsamples = 17\nvalue = [ 17.   0.]", shape="box"] ;
198 -> 254 ;
255 [label="entropy = 0.0000\nsamples = 1\nvalue = [ 0.  1.]", shape="box"] ;
197 -> 255 ;
256 [label="X[4] <= 3.5000\nentropy = 0.899104520848\nsamples = 92", shape="box"] ;
196 -> 256 ;
257 [label="entropy = 0.0000\nsamples = 8\nvalue = [ 8.  0.]", shape="box"] ;
256 -> 257 ;
258 [label="X[2] <= 13.5000\nentropy = 0.929743219177\nsamples = 84", shape="box"] ;
256 -> 258 ;
259 [label="X[8] <= 5.5000\nentropy = 0.955622269353\nsamples = 77", shape="box"] ;
258 -> 259 ;
260 [label="entropy = 0.0000\nsamples = 5\nvalue = [ 5.  0.]", shape="box"] ;
259 -> 260 ;
261 [label="X[8] <= 13.5000\nentropy = 0.972552316569\nsamples = 72", shape="box"] ;
259 -> 261 ;
262 [label="X[3] <= 14.5000\nentropy = 0.984343203098\nsamples = 68", shape="box"] ;
261 -> 262 ;
263 [label="X[9] <= 4.5000\nentropy = 0.96520169875\nsamples = 64", shape="box"] ;
262 -> 263 ;
264 [label="entropy = 0.0000\nsamples = 4\nvalue = [ 4.  0.]", shape="box"] ;
263 -> 264 ;
265 [label="X[1] <= 15.0000\nentropy = 0.979868756651\nsamples = 60", shape="box"] ;
263 -> 265 ;
266 [label="X[0] <= 3.5000\nentropy = 0.962146133409\nsamples = 57", shape="box"] ;
265 -> 266 ;
267 [label="entropy = 0.0000\nsamples = 2\nvalue = [ 0.  2.]", shape="box"] ;
266 -> 267 ;
268 [label="X[0] <= 6.5000\nentropy = 0.945660304601\nsamples = 55", shape="box"] ;
266 -> 268 ;
269 [label="entropy = 0.0000\nsamples = 8\nvalue = [ 8.  0.]", shape="box"] ;
268 -> 269 ;
270 [label="X[7] <= 10.5000\nentropy = 0.983939395164\nsamples = 47", shape="box"] ;
268 -> 270 ;
271 [label="X[0] <= 12.5000\nentropy = 0.997502546369\nsamples = 34", shape="box"] ;
270 -> 271 ;
272 [label="X[1] <= 12.5000\nentropy = 0.950956048455\nsamples = 27", shape="box"] ;
271 -> 272 ;
273 [label="X[10] <= 12.5000\nentropy = 0.870864469235\nsamples = 24", shape="box"] ;
272 -> 273 ;
274 [label="X[2] <= 9.5000\nentropy = 0.949452015388\nsamples = 19", shape="box"] ;
273 -> 274 ;
275 [label="X[0] <= 8.5000\nentropy = 0.954434002925\nsamples = 8", shape="box"] ;
274 -> 275 ;
276 [label="X[3] <= 11.0000\nentropy = 1.0\nsamples = 6", shape="box"] ;
275 -> 276 ;
277 [label="X[9] <= 11.5000\nentropy = 0.811278124459\nsamples = 4", shape="box"] ;
276 -> 277 ;
278 [label="entropy = 0.0000\nsamples = 3\nvalue = [ 0.  3.]", shape="box"] ;
277 -> 278 ;
279 [label="entropy = 0.0000\nsamples = 1\nvalue = [ 1.  0.]", shape="box"] ;
277 -> 279 ;
280 [label="entropy = 0.0000\nsamples = 2\nvalue = [ 2.  0.]", shape="box"] ;
276 -> 280 ;
281 [label="entropy = 0.0000\nsamples = 2\nvalue = [ 2.  0.]", shape="box"] ;
275 -> 281 ;
282 [label="X[7] <= 9.5000\nentropy = 0.684038435639\nsamples = 11", shape="box"] ;
274 -> 282 ;
283 [label="entropy = 0.0000\nsamples = 7\nvalue = [ 0.  7.]", shape="box"] ;
282 -> 283 ;
284 [label="X[8] <= 9.5000\nentropy = 1.0\nsamples = 4", shape="box"] ;
282 -> 284 ;
285 [label="entropy = 0.0000\nsamples = 2\nvalue = [ 2.  0.]", shape="box"] ;
284 -> 285 ;
286 [label="entropy = 0.0000\nsamples = 2\nvalue = [ 0.  2.]", shape="box"] ;
284 -> 286 ;
287 [label="entropy = 0.0000\nsamples = 5\nvalue = [ 0.  5.]", shape="box"] ;
273 -> 287 ;
288 [label="entropy = 0.0000\nsamples = 3\nvalue = [ 3.  0.]", shape="box"] ;
272 -> 288 ;
289 [label="X[9] <= 5.5000\nentropy = 0.591672778582\nsamples = 7", shape="box"] ;
271 -> 289 ;
290 [label="entropy = 0.0000\nsamples = 1\nvalue = [ 0.  1.]", shape="box"] ;
289 -> 290 ;
291 [label="entropy = 0.0000\nsamples = 6\nvalue = [ 6.  0.]", shape="box"] ;
289 -> 291 ;
292 [label="X[6] <= 11.5000\nentropy = 0.619382194679\nsamples = 13", shape="box"] ;
270 -> 292 ;
293 [label="entropy = 0.0000\nsamples = 8\nvalue = [ 8.  0.]", shape="box"] ;
292 -> 293 ;
294 [label="X[2] <= 7.0000\nentropy = 0.970950594455\nsamples = 5", shape="box"] ;
292 -> 294 ;
295 [label="entropy = 0.0000\nsamples = 1\nvalue = [ 0.  1.]", shape="box"] ;
294 -> 295 ;
296 [label="X[6] <= 12.5000\nentropy = 0.811278124459\nsamples = 4", shape="box"] ;
294 -> 296 ;
297 [label="entropy = 0.0000\nsamples = 1\nvalue = [ 0.  1.]", shape="box"] ;
296 -> 297 ;
298 [label="entropy = 0.0000\nsamples = 3\nvalue = [ 3.  0.]", shape="box"] ;
296 -> 298 ;
299 [label="entropy = 0.0000\nsamples = 3\nvalue = [ 0.  3.]", shape="box"] ;
265 -> 299 ;
300 [label="entropy = 0.0000\nsamples = 4\nvalue = [ 0.  4.]", shape="box"] ;
262 -> 300 ;
301 [label="entropy = 0.0000\nsamples = 4\nvalue = [ 4.  0.]", shape="box"] ;
261 -> 301 ;
302 [label="entropy = 0.0000\nsamples = 7\nvalue = [ 7.  0.]", shape="box"] ;
258 -> 302 ;
303 [label="X[0] <= 8.5000\nentropy = 0.88086456141\nsamples = 287", shape="box"] ;
195 -> 303 ;
304 [label="X[8] <= 10.5000\nentropy = 0.761029228461\nsamples = 127", shape="box"] ;
303 -> 304 ;
305 [label="X[4] <= 17.5000\nentropy = 0.667713540528\nsamples = 86", shape="box"] ;
304 -> 305 ;
306 [label="X[6] <= 11.5000\nentropy = 0.621629782057\nsamples = 84", shape="box"] ;
305 -> 306 ;
307 [label="X[4] <= 11.5000\nentropy = 0.468995593589\nsamples = 70", shape="box"] ;
306 -> 307 ;
308 [label="X[7] <= 12.5000\nentropy = 0.650022421648\nsamples = 42", shape="box"] ;
307 -> 308 ;
309 [label="X[4] <= 10.5000\nentropy = 0.503258334776\nsamples = 36", shape="box"] ;
308 -> 309 ;
310 [label="X[9] <= 12.5000\nentropy = 0.353359335021\nsamples = 30", shape="box"] ;
309 -> 310 ;
311 [label="entropy = 0.0000\nsamples = 24\nvalue = [ 24.   0.]", shape="box"] ;
310 -> 311 ;
312 [label="X[7] <= 5.5000\nentropy = 0.918295834054\nsamples = 6", shape="box"] ;
310 -> 312 ;
313 [label="entropy = 0.0000\nsamples = 4\nvalue = [ 4.  0.]", shape="box"] ;
312 -> 313 ;
314 [label="entropy = 0.0000\nsamples = 2\nvalue = [ 0.  2.]", shape="box"] ;
312 -> 314 ;
315 [label="X[5] <= 11.0000\nentropy = 0.918295834054\nsamples = 6", shape="box"] ;
309 -> 315 ;
316 [label="X[3] <= 7.5000\nentropy = 0.918295834054\nsamples = 3", shape="box"] ;
315 -> 316 ;
317 [label="entropy = 0.0000\nsamples = 1\nvalue = [ 1.  0.]", shape="box"] ;
316 -> 317 ;
318 [label="entropy = 0.0000\nsamples = 2\nvalue = [ 0.  2.]", shape="box"] ;
316 -> 318 ;
319 [label="entropy = 0.0000\nsamples = 3\nvalue = [ 3.  0.]", shape="box"] ;
315 -> 319 ;
320 [label="X[1] <= 8.5000\nentropy = 1.0\nsamples = 6", shape="box"] ;
308 -> 320 ;
321 [label="entropy = 0.0000\nsamples = 2\nvalue = [ 0.  2.]", shape="box"] ;
320 -> 321 ;
322 [label="X[6] <= 10.0000\nentropy = 0.811278124459\nsamples = 4", shape="box"] ;
320 -> 322 ;
323 [label="entropy = 0.0000\nsamples = 3\nvalue = [ 3.  0.]", shape="box"] ;
322 -> 323 ;
324 [label="entropy = 0.0000\nsamples = 1\nvalue = [ 0.  1.]", shape="box"] ;
322 -> 324 ;
325 [label="entropy = 0.0000\nsamples = 28\nvalue = [ 28.   0.]", shape="box"] ;
307 -> 325 ;
326 [label="X[9] <= 9.0000\nentropy = 0.985228136034\nsamples = 14", shape="box"] ;
306 -> 326 ;
327 [label="X[4] <= 9.5000\nentropy = 0.591672778582\nsamples = 7", shape="box"] ;
326 -> 327 ;
328 [label="X[2] <= 10.0000\nentropy = 1.0\nsamples = 2", shape="box"] ;
327 -> 328 ;
329 [label="entropy = 0.0000\nsamples = 1\nvalue = [ 0.  1.]", shape="box"] ;
328 -> 329 ;
330 [label="entropy = 0.0000\nsamples = 1\nvalue = [ 1.  0.]", shape="box"] ;
328 -> 330 ;
331 [label="entropy = 0.0000\nsamples = 5\nvalue = [ 5.  0.]", shape="box"] ;
327 -> 331 ;
332 [label="X[10] <= 9.5000\nentropy = 0.863120568567\nsamples = 7", shape="box"] ;
326 -> 332 ;
333 [label="X[6] <= 12.5000\nentropy = 0.918295834054\nsamples = 3", shape="box"] ;
332 -> 333 ;
334 [label="entropy = 0.0000\nsamples = 2\nvalue = [ 2.  0.]", shape="box"] ;
333 -> 334 ;
335 [label="entropy = 0.0000\nsamples = 1\nvalue = [ 0.  1.]", shape="box"] ;
333 -> 335 ;
336 [label="entropy = 0.0000\nsamples = 4\nvalue = [ 0.  4.]", shape="box"] ;
332 -> 336 ;
337 [label="entropy = 0.0000\nsamples = 2\nvalue = [ 0.  2.]", shape="box"] ;
305 -> 337 ;
338 [label="X[1] <= 10.5000\nentropy = 0.901170195997\nsamples = 41", shape="box"] ;
304 -> 338 ;
339 [label="X[2] <= 8.5000\nentropy = 0.721928094887\nsamples = 30", shape="box"] ;
338 -> 339 ;
340 [label="entropy = 0.0000\nsamples = 11\nvalue = [ 11.   0.]", shape="box"] ;
339 -> 340 ;
341 [label="X[3] <= 6.5000\nentropy = 0.899743758698\nsamples = 19", shape="box"] ;
339 -> 341 ;
342 [label="entropy = 0.0000\nsamples = 4\nvalue = [ 4.  0.]", shape="box"] ;
341 -> 342 ;
343 [label="X[10] <= 12.5000\nentropy = 0.970950594455\nsamples = 15", shape="box"] ;
341 -> 343 ;
344 [label="X[1] <= 6.5000\nentropy = 0.845350936622\nsamples = 11", shape="box"] ;
343 -> 344 ;
345 [label="entropy = 0.0000\nsamples = 2\nvalue = [ 0.  2.]", shape="box"] ;
344 -> 345 ;
346 [label="X[9] <= 11.0000\nentropy = 0.503258334776\nsamples = 9", shape="box"] ;
344 -> 346 ;
347 [label="entropy = 0.0000\nsamples = 7\nvalue = [ 7.  0.]", shape="box"] ;
346 -> 347 ;
348 [label="X[9] <= 12.5000\nentropy = 1.0\nsamples = 2", shape="box"] ;
346 -> 348 ;
349 [label="entropy = 0.0000\nsamples = 1\nvalue = [ 0.  1.]", shape="box"] ;
348 -> 349 ;
350 [label="entropy = 0.0000\nsamples = 1\nvalue = [ 1.  0.]", shape="box"] ;
348 -> 350 ;
351 [label="X[10] <= 13.5000\nentropy = 0.811278124459\nsamples = 4", shape="box"] ;
343 -> 351 ;
352 [label="entropy = 0.0000\nsamples = 3\nvalue = [ 0.  3.]", shape="box"] ;
351 -> 352 ;
353 [label="entropy = 0.0000\nsamples = 1\nvalue = [ 1.  0.]", shape="box"] ;
351 -> 353 ;
354 [label="X[7] <= 10.5000\nentropy = 0.945660304601\nsamples = 11", shape="box"] ;
338 -> 354 ;
355 [label="X[8] <= 13.5000\nentropy = 0.5435644432\nsamples = 8", shape="box"] ;
354 -> 355 ;
356 [label="entropy = 0.0000\nsamples = 7\nvalue = [ 0.  7.]", shape="box"] ;
355 -> 356 ;
357 [label="entropy = 0.0000\nsamples = 1\nvalue = [ 1.  0.]", shape="box"] ;
355 -> 357 ;
358 [label="entropy = 0.0000\nsamples = 3\nvalue = [ 3.  0.]", shape="box"] ;
354 -> 358 ;
359 [label="X[8] <= 14.5000\nentropy = 0.944738828647\nsamples = 160", shape="box"] ;
303 -> 359 ;
360 [label="X[3] <= 3.5000\nentropy = 0.932619341566\nsamples = 155", shape="box"] ;
359 -> 360 ;
361 [label="entropy = 0.0000\nsamples = 2\nvalue = [ 0.  2.]", shape="box"] ;
360 -> 361 ;
362 [label="X[7] <= 10.5000\nentropy = 0.924693560985\nsamples = 153", shape="box"] ;
360 -> 362 ;
363 [label="X[3] <= 5.5000\nentropy = 0.964799548505\nsamples = 100", shape="box"] ;
362 -> 363 ;
364 [label="entropy = 0.0000\nsamples = 5\nvalue = [ 5.  0.]", shape="box"] ;
363 -> 364 ;
365 [label="X[2] <= 9.5000\nentropy = 0.976776006532\nsamples = 95", shape="box"] ;
363 -> 365 ;
366 [label="X[1] <= 6.5000\nentropy = 0.997059056903\nsamples = 47", shape="box"] ;
365 -> 366 ;
367 [label="X[8] <= 6.5000\nentropy = 0.749595257259\nsamples = 14", shape="box"] ;
366 -> 367 ;
368 [label="entropy = 0.0000\nsamples = 6\nvalue = [ 0.  6.]", shape="box"] ;
367 -> 368 ;
369 [label="X[5] <= 10.5000\nentropy = 0.954434002925\nsamples = 8", shape="box"] ;
367 -> 369 ;
370 [label="X[8] <= 10.0000\nentropy = 0.970950594455\nsamples = 5", shape="box"] ;
369 -> 370 ;
371 [label="entropy = 0.0000\nsamples = 2\nvalue = [ 2.  0.]", shape="box"] ;
370 -> 371 ;
372 [label="X[7] <= 7.5000\nentropy = 0.918295834054\nsamples = 3", shape="box"] ;
370 -> 372 ;
373 [label="entropy = 0.0000\nsamples = 1\nvalue = [ 1.  0.]", shape="box"] ;
372 -> 373 ;
374 [label="entropy = 0.0000\nsamples = 2\nvalue = [ 0.  2.]", shape="box"] ;
372 -> 374 ;
375 [label="entropy = 0.0000\nsamples = 3\nvalue = [ 0.  3.]", shape="box"] ;
369 -> 375 ;
376 [label="X[6] <= 7.5000\nentropy = 0.983376190139\nsamples = 33", shape="box"] ;
366 -> 376 ;
377 [label="X[3] <= 8.5000\nentropy = 0.940285958671\nsamples = 14", shape="box"] ;
376 -> 377 ;
378 [label="entropy = 0.0000\nsamples = 6\nvalue = [ 0.  6.]", shape="box"] ;
377 -> 378 ;
379 [label="X[8] <= 10.5000\nentropy = 0.954434002925\nsamples = 8", shape="box"] ;
377 -> 379 ;
380 [label="X[9] <= 8.5000\nentropy = 0.970950594455\nsamples = 5", shape="box"] ;
379 -> 380 ;
381 [label="entropy = 0.0000\nsamples = 2\nvalue = [ 2.  0.]", shape="box"] ;
380 -> 381 ;
382 [label="entropy = 0.0000\nsamples = 3\nvalue = [ 0.  3.]", shape="box"] ;
380 -> 382 ;
383 [label="entropy = 0.0000\nsamples = 3\nvalue = [ 3.  0.]", shape="box"] ;
379 -> 383 ;
384 [label="X[1] <= 10.5000\nentropy = 0.83147438801\nsamples = 19", shape="box"] ;
376 -> 384 ;
385 [label="entropy = 0.0000\nsamples = 10\nvalue = [ 10.   0.]", shape="box"] ;
384 -> 385 ;
386 [label="X[2] <= 7.5000\nentropy = 0.991076059838\nsamples = 9", shape="box"] ;
384 -> 386 ;
387 [label="X[2] <= 4.5000\nentropy = 0.721928094887\nsamples = 5", shape="box"] ;
386 -> 387 ;
388 [label="entropy = 0.0000\nsamples = 1\nvalue = [ 0.  1.]", shape="box"] ;
387 -> 388 ;
389 [label="entropy = 0.0000\nsamples = 4\nvalue = [ 4.  0.]", shape="box"] ;
387 -> 389 ;
390 [label="entropy = 0.0000\nsamples = 4\nvalue = [ 0.  4.]", shape="box"] ;
386 -> 390 ;
391 [label="X[5] <= 11.5000\nentropy = 0.870864469235\nsamples = 48", shape="box"] ;
365 -> 391 ;
392 [label="X[1] <= 10.5000\nentropy = 0.650022421648\nsamples = 30", shape="box"] ;
391 -> 392 ;
393 [label="X[0] <= 16.0000\nentropy = 0.286396957116\nsamples = 20", shape="box"] ;
392 -> 393 ;
394 [label="entropy = 0.0000\nsamples = 19\nvalue = [ 19.   0.]", shape="box"] ;
393 -> 394 ;
395 [label="entropy = 0.0000\nsamples = 1\nvalue = [ 0.  1.]", shape="box"] ;
393 -> 395 ;
396 [label="X[2] <= 10.5000\nentropy = 0.970950594455\nsamples = 10", shape="box"] ;
392 -> 396 ;
397 [label="entropy = 0.0000\nsamples = 2\nvalue = [ 0.  2.]", shape="box"] ;
396 -> 397 ;
398 [label="X[9] <= 9.5000\nentropy = 0.811278124459\nsamples = 8", shape="box"] ;
396 -> 398 ;
399 [label="X[1] <= 11.5000\nentropy = 1.0\nsamples = 4", shape="box"] ;
398 -> 399 ;
400 [label="entropy = 0.0000\nsamples = 2\nvalue = [ 2.  0.]", shape="box"] ;
399 -> 400 ;
401 [label="entropy = 0.0000\nsamples = 2\nvalue = [ 0.  2.]", shape="box"] ;
399 -> 401 ;
402 [label="entropy = 0.0000\nsamples = 4\nvalue = [ 4.  0.]", shape="box"] ;
398 -> 402 ;
403 [label="X[9] <= 11.5000\nentropy = 1.0\nsamples = 18", shape="box"] ;
391 -> 403 ;
404 [label="X[6] <= 11.5000\nentropy = 0.890491640219\nsamples = 13", shape="box"] ;
403 -> 404 ;
405 [label="X[3] <= 7.5000\nentropy = 0.684038435639\nsamples = 11", shape="box"] ;
404 -> 405 ;
406 [label="X[8] <= 7.5000\nentropy = 0.918295834054\nsamples = 3", shape="box"] ;
405 -> 406 ;
407 [label="entropy = 0.0000\nsamples = 1\nvalue = [ 1.  0.]", shape="box"] ;
406 -> 407 ;
408 [label="entropy = 0.0000\nsamples = 2\nvalue = [ 0.  2.]", shape="box"] ;
406 -> 408 ;
409 [label="entropy = 0.0000\nsamples = 8\nvalue = [ 8.  0.]", shape="box"] ;
405 -> 409 ;
410 [label="entropy = 0.0000\nsamples = 2\nvalue = [ 0.  2.]", shape="box"] ;
404 -> 410 ;
411 [label="entropy = 0.0000\nsamples = 5\nvalue = [ 0.  5.]", shape="box"] ;
403 -> 411 ;
412 [label="X[0] <= 15.5000\nentropy = 0.803715923783\nsamples = 53", shape="box"] ;
362 -> 412 ;
413 [label="X[8] <= 12.5000\nentropy = 0.721928094887\nsamples = 50", shape="box"] ;
412 -> 413 ;
414 [label="X[8] <= 6.5000\nentropy = 0.591672778582\nsamples = 42", shape="box"] ;
413 -> 414 ;
415 [label="X[3] <= 10.5000\nentropy = 0.991076059838\nsamples = 9", shape="box"] ;
414 -> 415 ;
416 [label="X[6] <= 11.5000\nentropy = 0.721928094887\nsamples = 5", shape="box"] ;
415 -> 416 ;
417 [label="entropy = 0.0000\nsamples = 4\nvalue = [ 0.  4.]", shape="box"] ;
416 -> 417 ;
418 [label="entropy = 0.0000\nsamples = 1\nvalue = [ 1.  0.]", shape="box"] ;
416 -> 418 ;
419 [label="entropy = 0.0000\nsamples = 4\nvalue = [ 4.  0.]", shape="box"] ;
415 -> 419 ;
420 [label="X[1] <= 5.5000\nentropy = 0.329846070207\nsamples = 33", shape="box"] ;
414 -> 420 ;
421 [label="X[7] <= 11.5000\nentropy = 0.811278124459\nsamples = 8", shape="box"] ;
420 -> 421 ;
422 [label="X[6] <= 11.0000\nentropy = 1.0\nsamples = 4", shape="box"] ;
421 -> 422 ;
423 [label="entropy = 0.0000\nsamples = 2\nvalue = [ 0.  2.]", shape="box"] ;
422 -> 423 ;
424 [label="entropy = 0.0000\nsamples = 2\nvalue = [ 2.  0.]", shape="box"] ;
422 -> 424 ;
425 [label="entropy = 0.0000\nsamples = 4\nvalue = [ 4.  0.]", shape="box"] ;
421 -> 425 ;
426 [label="entropy = 0.0000\nsamples = 25\nvalue = [ 25.   0.]", shape="box"] ;
420 -> 426 ;
427 [label="X[5] <= 11.5000\nentropy = 1.0\nsamples = 8", shape="box"] ;
413 -> 427 ;
428 [label="X[5] <= 8.0000\nentropy = 0.721928094887\nsamples = 5", shape="box"] ;
427 -> 428 ;
429 [label="X[8] <= 13.5000\nentropy = 1.0\nsamples = 2", shape="box"] ;
428 -> 429 ;
430 [label="entropy = 0.0000\nsamples = 1\nvalue = [ 0.  1.]", shape="box"] ;
429 -> 430 ;
431 [label="entropy = 0.0000\nsamples = 1\nvalue = [ 1.  0.]", shape="box"] ;
429 -> 431 ;
432 [label="entropy = 0.0000\nsamples = 3\nvalue = [ 0.  3.]", shape="box"] ;
428 -> 432 ;
433 [label="entropy = 0.0000\nsamples = 3\nvalue = [ 3.  0.]", shape="box"] ;
427 -> 433 ;
434 [label="entropy = 0.0000\nsamples = 3\nvalue = [ 0.  3.]", shape="box"] ;
412 -> 434 ;
435 [label="X[6] <= 6.0000\nentropy = 0.721928094887\nsamples = 5", shape="box"] ;
359 -> 435 ;
436 [label="entropy = 0.0000\nsamples = 1\nvalue = [ 1.  0.]", shape="box"] ;
435 -> 436 ;
437 [label="entropy = 0.0000\nsamples = 4\nvalue = [ 0.  4.]", shape="box"] ;
435 -> 437 ;
438 [label="X[10] <= 16.0000\nentropy = 0.258018668665\nsamples = 23", shape="box"] ;
194 -> 438 ;
439 [label="entropy = 0.0000\nsamples = 22\nvalue = [ 22.   0.]", shape="box"] ;
438 -> 439 ;
440 [label="entropy = 0.0000\nsamples = 1\nvalue = [ 0.  1.]", shape="box"] ;
438 -> 440 ;
}